{"layerSizes":[7,32,16,1],"trainingLoss":3.6657154755706434,"accuracy":0.801,"weights":[{"rows":32,"cols":7,"data":[[6112.262949089679,3701.8538751780447,6953.531787914989,4311.117643642619,5125.597014914212,5277.813530570992,9911.241451442738],[6113.118942738635,3702.8057488040367,6955.605520263793,4312.298499788772,5127.471020377821,5278.894496837341,9914.36624997337],[6112.932025828126,3701.272226887257,6954.580552740981,4312.1103777923945,5125.7345635005395,5277.121821444637,9909.564383894505],[6111.470442448769,3700.733388546585,6953.470535082867,4312.196921283911,5125.343110831857,5276.663367541153,9908.221416284772],[6108.227112347338,3699.0869036373742,6949.803037733286,4308.628535393391,5122.047351454167,5273.566290806334,9903.958560835765],[6111.565809544397,3701.0734877935206,6953.357790333192,4310.698901843982,5126.250000900822,5277.419616276506,9911.273607859166],[6113.232628004906,3701.3175619118847,6954.802968680348,4312.066348286695,5126.344066609317,5278.116590899268,9910.212436512682],[6113.270946326991,3701.66120011075,6954.931790332662,4311.6820280123975,5125.744367083128,5278.068435901525,9911.548682659977],[-6068.963137510842,-3674.9054159916786,-6904.137529236204,-4280.334932107825,-5089.252513937974,-5240.085719714125,-9839.170274249283],[-6072.553596042613,-3676.9103565171818,-6908.678839831646,-4283.416138955873,-5092.057741943596,-5242.298743571603,-9845.301596224912],[6112.31044489875,3701.242242191805,6954.2123657900775,4311.2409706906965,5126.041332591843,5277.010470237485,9911.319286076012],[6112.443006196002,3700.910643191821,6954.121341634374,4311.971923791883,5125.277291065073,5276.540423733505,9908.637527860708],[-6071.397928599289,-3676.612040000189,-6906.678164548299,-4282.499106384848,-5091.433163004396,-5242.135051467242,-9843.035836741748],[-6072.245357816795,-3677.3972451533377,-6908.271831701331,-4283.564560229665,-5091.572396846814,-5242.31414991876,-9845.305736592152],[6112.314612345012,3701.7941329874575,6953.775263943207,4311.741374616625,5125.684429035632,5278.186975496547,9911.055249688701],[6112.094475985903,3701.2237333836515,6953.8655850674195,4311.405769324284,5125.177052352237,5276.64116245499,9908.827573880313],[6112.262405271526,3701.669060591346,6954.19417773334,4311.319513171409,5125.985429746603,5276.985174498606,9910.00099975309],[6112.5088711702265,3701.2763200481672,6953.943132033504,4311.6722212431105,5125.062156144878,5276.560869169297,9908.283506959648],[6112.381758759577,3702.1563414363773,6954.485837440727,4312.3027265957135,5126.582451616667,5277.56491390142,9911.85960553603],[-6072.948846591206,-3677.350905367656,-6909.637148818216,-4284.0081078747735,-5093.193986322436,-5243.402351927707,-9846.32837829475],[6112.031274454091,3702.1347948112248,6954.1389902734,4311.642749285736,5126.584951817453,5277.847586940676,9911.074614664563],[6112.320018295279,3701.649082859058,6954.80898351171,4312.111281789386,5125.759212239402,5278.0722093400345,9911.633378249127],[6112.212983600566,3701.6143020135655,6953.793696523311,4311.593126020128,5125.617786805817,5277.992567119818,9911.529233695055],[6110.22886530832,3699.566065425512,6951.346650066818,4309.774506898525,5124.058774017396,5275.8776493067835,9906.182659143913],[-6069.307171359884,-3675.44657478436,-6905.277905493185,-4280.864160919636,-5089.435075754262,-5240.439926465098,-9840.732371745016],[6113.558634897356,3702.202841720726,6955.140482714523,4312.33886494058,5126.681833984815,5278.596504859791,9911.432490235966],[6109.079641050245,3699.938956379203,6950.272042889927,4309.623642870481,5123.433724699401,5274.969842206967,9905.320626944964],[6111.197256227327,3701.4766919716417,6954.041482381309,4310.862999356489,5124.974853102847,5277.262414539694,9909.335471125603],[-6062.005198523413,-3671.20265993713,-6896.145383902631,-4275.6861889550855,-5083.071942623467,-5234.413169694593,-9828.869640570685],[6111.946385327794,3701.566280359173,6954.5365424369875,4311.756547945616,5125.817582318036,5277.810233455256,9908.894393013592],[6111.290032354985,3700.989078944733,6952.117742649145,4310.206947990672,5124.957975710179,5276.843122760601,9907.781772293964],[6112.811023109476,3701.0475885438514,6953.722660013087,4312.091402406154,5125.403729077136,5277.2612261984605,9910.153988286233]]},{"rows":16,"cols":32,"data":[[1.8718420373518172E8,1.8729091142591688E8,1.8716852827886033E8,1.8712244962238586E8,1.8693064804441658E8,1.8717474856746018E8,1.8719352314983195E8,1.8721179867027414E8,-1845033.8962125,-1847245.867265978,1.8718776737848067E8,1.871374224321015E8,-1846544.2078361362,-1847199.0063620298,1.8719127296497974E8,1.8713766489871064E8,1.8716771182804173E8,1.8713015651247492E8,1.8721467650097984E8,-1847741.1451491409,1.8719673067747253E8,1.8720775739928332E8,1.8719435601936963E8,1.8703263987043417E8,-1845492.7209547134,1.8722685964443457E8,1.8698979440814608E8,1.871435661867098E8,-1840993.770135944,1.8715774129704413E8,1.8709372873257414E8,1.8716628953869364E8],[1.8718423282753018E8,1.8729095417258182E8,1.871685564097006E8,1.8712247309497535E8,1.869306642511305E8,1.8717477725805655E8,1.8719355427291617E8,1.8721183115917337E8,-1845033.7687786943,-1847246.0110113374,1.8718779709110853E8,1.871374472759323E8,-1846544.2680433136,-1847199.3891211082,1.8719130337610245E8,1.871376893130002E8,1.8716773920975438E8,1.8713018056279868E8,1.8721470973821157E8,-1847740.804532947,1.871967614904051E8,1.8720778926151815E8,1.8719438680176166E8,1.8703265948837316E8,-1845492.8354588458,1.8722689454340696E8,1.8698981236603755E8,1.871435908966815E8,-1840993.634198157,1.8715776808049074E8,1.8709375080017558E8,1.871663167593957E8],[-1.8717706100291514E8,-1.872830971259462E8,-1.8716148234340978E8,-1.8711569313188505E8,-1.8692504972906289E8,-1.871676654809675E8,-1.8718632135464162E8,-1.8720448172638637E8,1845039.135926062,1847250.0716769341,-1.8718060192022583E8,-1.8713057165886322E8,1846548.7245299844,1847203.2943358659,-1.8718408570346037E8,-1.871308129772925E8,-1.871606715810684E8,-1.8712335147528496E8,-1.8720734124118862E8,1847744.6303634518,-1.8718950921325052E8,-1.872004662471025E8,-1.8718714940337607E8,-1.8702643850175387E8,1845497.5267499276,-1.87219446318156E8,-1.869838500887429E8,-1.8713667773639676E8,1840999.928622636,-1.8715076381229064E8,-1.870871524994783E8,-1.8715925837693757E8],[1.8718423299795148E8,1.8729095961736134E8,1.8716855629208717E8,1.8712247133078307E8,1.869306606886566E8,1.8717477682360914E8,1.8719355509371528E8,1.872118321531769E8,-1845034.0578343,-1847246.157605276,1.871877970209727E8,1.8713744612318265E8,-1846544.1321316618,-1847199.26085064,1.8719130349757606E8,1.8713768793088138E8,1.8716773866958117E8,1.871301792566526E8,1.8721471106160927E8,-1847740.8754734793,1.8719676216802973E8,1.872077901820047E8,1.8719438716204473E8,1.870326570323282E8,-1845492.8008499835,1.8722689663458833E8,1.8698980914065868E8,1.8714358969454575E8,-1840993.795003046,1.8715776729804918E8,1.8709374912528083E8,1.8716631607587114E8],[-1.8717701287112635E8,-1.872830404083123E8,-1.8716143557895827E8,-1.871156497806118E8,-1.869250223268722E8,-1.871676181890868E8,-1.8718627215754735E8,-1.8720443149848235E8,1845040.3872029718,1847251.5879809014,-1.871805532242892E8,-1.8713052738916707E8,1846550.3471754598,1847204.5507032222,-1.8718403675066423E8,-1.8713076844677392E8,-1.8716062509798685E8,-1.8712330750988075E8,-1.8720729016876268E8,1847746.0793811018,-1.8718945981976905E8,-1.872004163584666E8,-1.8718710079463002E8,-1.8702640290745622E8,1845499.2560903113,-1.8721939483256754E8,-1.8698381794696295E8,-1.8713663275900376E8,1841001.478827035,-1.87150717352346E8,-1.8708711184887928E8,-1.8715921146085256E8],[1.8718424614270812E8,1.8729097174760863E8,1.8716856789783812E8,1.871224828019657E8,1.869306708697978E8,1.871747900393569E8,1.871935669231847E8,1.8721184475054586E8,-1845034.1417799504,-1847246.296953354,1.87187810281852E8,1.8713745782702932E8,-1846544.3945236318,-1847199.2664562874,1.871913161349743E8,1.8713770027336034E8,1.871677512965778E8,1.8713019074620184E8,1.87214723839674E8,-1847740.9617360672,1.87196774942488E8,1.872078034904863E8,1.8719440041135666E8,1.8703266781347865E8,-1845492.5746013992,1.872269083493951E8,1.869898196113032E8,1.8714360248157048E8,-1840993.494121672,1.8715777925531396E8,1.870937602973414E8,1.8716632872125593E8],[-1.871774198520246E8,-1.8728348024368474E8,-1.8716183810582262E8,-1.8711603834055042E8,-1.8692535163689062E8,-1.8716802214090958E8,-1.871866824254659E8,-1.8720484720563638E8,1845037.710260242,1847248.9445889373,-1.8718096168132E8,-1.8713092029604173E8,1846547.465425394,1847201.7616433676,-1.8718444633466062E8,-1.8713116175601006E8,-1.871610274237709E8,-1.8712369837016562E8,-1.87207707194144E8,1847743.7037493247,-1.8718987111123866E8,-1.872008308050604E8,-1.8718751120093915E8,-1.870267638742429E8,1845496.446339231,-1.8721981524073014E8,-1.869841656194511E8,-1.8713702743404293E8,1840998.123802111,-1.8715111700118664E8,-1.8708749140279937E8,-1.8715961344323745E8],[1.8718412938456348E8,1.8729079994585797E8,1.8716846165683147E8,1.8712239841538262E8,1.8693062623318127E8,1.8717467713956892E8,1.8719344782173654E8,1.8721171578012604E8,-1845034.2634765436,-1847246.539749484,1.8718769205257285E8,1.8713736669322428E8,-1846544.965230641,-1847199.4265782959,1.87191196504322E8,1.8713760830103648E8,1.8716764416379723E8,1.871301032248556E8,1.8721459225262362E8,-1847741.1981715122,1.8719665244426575E8,1.8720767570192862E8,1.8719427863571504E8,1.8703260995884085E8,-1845492.9756812067,1.8722677215533018E8,1.8698976837842888E8,1.8714350660270783E8,-1840994.094501417,1.8715767816691536E8,1.8709368603177512E8,1.8716622260038552E8],[-1.8717729646785724E8,-1.8728334679874715E8,-1.871617162312418E8,-1.8711592037392724E8,-1.8692525208063236E8,-1.8716789999955013E8,-1.8718655808277014E8,-1.8720472132516515E8,1845038.5797182387,1847249.6182780662,-1.8718083791489136E8,-1.871308013205481E8,1846548.0516800368,1847202.715505174,-1.871843222813478E8,-1.8713104257099754E8,-1.8716090503122118E8,-1.87123579589237E8,-1.8720758073615828E8,1847744.2700138614,-1.8718974658646455E8,-1.8720070509004444E8,-1.8718738667156252E8,-1.870266540682941E8,1845497.0978368754,-1.872196876378217E8,-1.8698406004632258E8,-1.871369076549667E8,1840999.175119636,-1.8715099575798512E8,-1.870873763325682E8,-1.8715949152087027E8],[-1.8717720870866227E8,-1.8728325322238794E8,-1.8716162944223043E8,-1.8711583609789515E8,-1.8692517810697946E8,-1.871678127658808E8,-1.8718646990264925E8,-1.8720463197050822E8,1845038.7117603242,1847250.0401128046,-1.8718074988300556E8,-1.8713071608787203E8,1846548.4256007117,1847203.0906549962,-1.8718423392877197E8,-1.8713095739874622E8,-1.8716081833208454E8,-1.8712349497134414E8,-1.8720749145090562E8,1847744.460008803,-1.871896581419447E8,-1.8720061601612365E8,-1.8718729842100444E8,-1.8702657513388246E8,1845497.265665657,-1.8721959730250242E8,-1.8698398304111928E8,-1.8713682252674854E8,1840999.44041503,-1.8715090931066656E8,-1.8708729336708376E8,-1.8715940476005358E8],[-1.8717733885328543E8,-1.8728339268302777E8,-1.8716175803866825E8,-1.8711596082365996E8,-1.869252865646306E8,-1.8716794196939886E8,-1.871866005629526E8,-1.8720476441581517E8,1845038.294068698,1847249.536123091,-1.8718088028147262E8,-1.8713084191799945E8,1846548.0953427562,1847202.4795324286,-1.8718436473047382E8,-1.8713108329253778E8,-1.8716094705634815E8,-1.871236205831177E8,-1.8720762395477283E8,1847744.1691236752,-1.8718978899810946E8,-1.8720074809316388E8,-1.8718742939530876E8,-1.870266917596345E8,1845497.0137779145,-1.872197313828371E8,-1.869840965972188E8,-1.8713694858553752E8,1840998.726332117,-1.8715103721951795E8,-1.8708741592998046E8,-1.8715953308522743E8],[1.8718418659399492E8,1.8729089071408138E8,1.871685129484292E8,1.8712243536248213E8,1.8693063768308088E8,1.8717473198606497E8,1.871935071612403E8,1.8721178117426336E8,-1845033.76599017,-1847246.273975897,1.871877502267994E8,1.8713740812866738E8,-1846544.5373785337,-1847199.4182484644,1.8719125603708726E8,1.8713764995416585E8,1.8716769619477123E8,1.87130142561528E8,1.8721465889924142E8,-1847741.0537292645,1.871967135243898E8,1.8720774009550735E8,1.8719433875720647E8,1.870326279925738E8,-1845492.7800589195,1.8722684167513275E8,1.869897828673138E8,1.8714355074873343E8,-1840993.7449370613,1.8715772612484518E8,1.8709371529705986E8,1.8716627355671555E8],[-1.8717685682607192E8,-1.8728287377367547E8,-1.871612811731111E8,-1.871155000513736E8,-1.8692489071367136E8,-1.871674630997002E8,-1.871861154095471E8,-1.872042728297959E8,1845041.1509099838,1847252.395623173,-1.8718039706404623E8,-1.8713037561269245E8,1846550.8367131846,1847205.2224175,-1.8718388008498865E8,-1.8713061696383557E8,-1.8716047036719683E8,-1.8712315656586874E8,-1.872071310877935E8,1847747.0225528139,-1.871893026813421E8,-1.8720025787485388E8,-1.8718694347837648E8,-1.8702626164678943E8,1845499.7406799262,-1.8721923448692682E8,-1.8698368069031072E8,-1.87136480754826E8,1841002.0508596671,-1.8715056409528324E8,-1.8708696433986968E8,-1.871590572195908E8],[1.8718426238109145E8,1.8729099210357156E8,1.871685835084987E8,1.8712249755216098E8,1.8693068342556116E8,1.87174805930991E8,1.8719358341891414E8,1.8721186207095253E8,-1845033.9535127832,-1847245.9215226015,1.871878263300506E8,1.871374723414189E8,-1846544.448408435,-1847199.3515961547,1.871913329027646E8,1.8713771478520724E8,1.87167766718156E8,1.8713020549630424E8,1.872147410360091E8,-1847740.9781006924,1.8719679151258153E8,1.8720782027753732E8,1.8719441649805436E8,1.870326814692461E8,-1845492.899689563,1.8722692644302958E8,1.8698983256203288E8,1.8714361707859185E8,-1840993.615571683,1.871577949204998E8,1.8709377466012096E8,1.871663442280173E8],[1.8718426359968156E8,1.8729099472983035E8,1.8716858524030715E8,1.8712249842964834E8,1.8693068404038855E8,1.8717480760654536E8,1.8719358515551832E8,1.8721186386803013E8,-1845034.0308377214,-1847245.8725169161,1.8718782786549565E8,1.871374734651524E8,-1846544.255726412,-1847199.0753108007,1.8719133433377016E8,1.8713771595285216E8,1.871677683640525E8,1.871302062590133E8,1.8721474289608777E8,-1847740.988027368,1.871967931025155E8,1.8720782190370426E8,1.87194418461588E8,1.8703268213332915E8,-1845492.465270592,1.8722692800842622E8,1.8698983342132843E8,1.87143618329971E8,-1840993.6229475234,1.8715779595865223E8,1.8709377578837484E8,1.871663454789901E8],[1.8718423929311007E8,1.8729095991998968E8,1.8716856153931126E8,1.8712247826828885E8,1.8693066782357094E8,1.8717478373800242E8,1.871935597903003E8,1.8721183690531778E8,-1845033.727575263,-1847246.2703602603,1.8718780334900883E8,1.8713745228733593E8,-1846544.343863661,-1847199.3976697272,1.8719130918092695E8,1.871376947342426E8,1.8716774553492105E8,1.8713018582062322E8,1.8721471597591683E8,-1847740.9405986236,1.8719676800572616E8,1.872077954703019E8,1.8719439317256555E8,1.8703266404389834E8,-1845492.4845312056,1.8722689994672716E8,1.8698981602502018E8,1.8714359715456417E8,-1840993.9133159693,1.871577736719183E8,1.8709375613621414E8,1.871663226794984E8]]},{"rows":1,"cols":16,"data":[[3.510425832539336E11,3.5104268592621594E11,-3.510299682008914E9,3.510427068629708E11,-3.510298875737113E9,3.5104273488142114E11,-3.510305360124056E9,3.510422733254686E11,-3.510303372314061E9,-3.5103019761491795E9,-3.5103040649145308E9,3.510425318820737E11,-3.5102964359004536E9,3.510427754357429E11,3.510427841324955E11,3.510427034121138E11]]}],"biases":[{"rows":32,"cols":1,"data":[[10198.43874789771],[10201.594369848348],[10197.495061520856],[10196.50667782097],[10191.643183737857],[10198.352580546358],[10198.16597846865],[10198.913176201726],[-10124.837745881341],[-10130.88309751256],[10198.582173566114],[10196.671639033366],[-10129.110303273383],[-10130.874973776967],[10198.6368428452],[10197.018010817637],[10197.79048437668],[10196.476607601955],[10199.127296911562],[-10132.325785255547],[10198.71616747186],[10198.901715054979],[10198.789029284071],[10194.37102930745],[-10126.170766996933],[10198.969347286786],[10193.13927964239],[10197.438870334712],[-10113.899370368397],[10197.353833161258],[10195.996650641342],[10197.543738880362]]},{"rows":16,"cols":1,"data":[[10195.83942181046],[10197.291703565681],[-10131.858730143787],[10197.850570950952],[-10131.047309885736],[10197.799481655105],[-10134.167230081446],[10192.023173157744],[-10133.211489516623],[-10132.645338389993],[-10133.524899185986],[10195.430329247143],[-10130.042547077346],[10198.268479959142],[10198.408573169305],[10197.247267023395]]},{"rows":1,"cols":1,"data":[[335.55299564515366]]}]}